0.21979262980374350555656803862802917137742042541504,-0.010582861520084101483729632775521167786791920661926,0.276721659642195305650602676905691623687744140625,-0.17774275841392350727687698963563889265060424804688,-0.08096879220079340744309348565366235561668872833252,0.034792122151455953660281750217109220102429389953613,-0.11354566501679212719988498747625271789729595184326,-0.060896264208284152374961450959744979627430438995361,0.17248329501783016270977100248273927718400955200195,0.10916766451227133405410540945013053715229034423828,-0.021744400457684498473298617682303301990032196044922,-0.1049719425488847418526106025638000573962926864624,0.26619018532632299223195104787009768187999725341797,-0.17697129181206192050090919565263902768492698669434,0.017126408019019542100513930904526205267757177352905,-0.15932109456698920202377678378979908302426338195801,0.087384124698611828629957187786203576251864433288574,-0.19121218237295339870129851078672800213098526000977,-0.038847696629823118275037785451786476187407970428467,-0.1372192833317388560576688405490131117403507232666,0.20522444615704132919731250694894697517156600952148,-0.28856485834251854871723708129138685762882232666016,-0.096858696317564260680477161713497480377554893493652,-0.29236187931932589023631408053915947675704956054688,0.12998783337975716722922925328020937740802764892578,-0.13623012034617421051052588154561817646026611328125,0.37055351810361936149007533458643592894077301025391,-0.45780550914523582273218949012516532093286514282227,0.16928086726376753712308698140986962243914604187012,0.078179363222146802669954013254027813673019409179688,-0.12135736905309262023688887666139635257422924041748,-0.28177255972071113543364617726183496415615081787109,0.28991725439459309354717220230668317526578903198242,-0.16422103767970050447466690002329414710402488708496,-0.23665843069501746320781876420369371771812438964844,-0.2870591232729875486029413877986371517181396484375,-0.12183072182622843582233684855964384041726589202881,0.051654350358549309951694539222444291226565837860107,-0.079467000487674452346986697648389963433146476745605,-0.13618876248717440291535751839546719565987586975098,-0.101306431947865149822973762638866901397705078125,0.16210182038060494402742506281356327235698699951172,0.34519240464850842187161106267012655735015869140625,0.12489843708297909685711601923685520887374877929688,-0.072243520240042990998574623517924919724464416503906,-0.025128335226526743451103129700641147792339324951172,0.23777497859803695123837030678259907290339469909668,-0.023592337975185256881971440634515602141618728637695,0.097531857744886832350950101044873008504509925842285,0.15339718442667288345049314557400066405534744262695,0.28076561572591152149414028826868161559104919433594,0.03278226067972282026241614971695526037365198135376,-0.20444278794751827299513990965351695194840431213379,0.22730982517122583219659759379283059388399124145508,-0.086456265746753080403408375786966644227504730224609,-0.076784839865154622118303961997298756614327430725098,-0.31822811677731394075507864727114792913198471069336,0.2581491044101024701085123069788096472620964050293,-0.025752347955659161266028789327720005530864000320435,-0.2347226571611098766556580130782094784080982208252,0.0664311703709952183771747513674199581146240234375,-0.19255972238253860062684452714165672659873962402344,-0.029474706558676785211892124038968177046626806259155,0.0019757584307752060724661102852905969484709203243256,-0.035917216328748446940721805731300264596939086914063,0.2167007923050185413949009216594276949763298034668,-0.28113694719179338488146413510548882186412811279297,-0.066924219600793338758037975821935106068849563598633,-0.088748844371979954126494760657806182280182838439941,0.41151895629476309412808632259839214384555816650391,0.021324120594128165295799703926604706794023513793945,0.078160411986898922775957032627047738060355186462402,0.29173397465414480089762605530268047004938125610352,-0.095741136961905087821023130345565732568502426147461,-0.13775705858141756854351456240692641586065292358398,0.19128878991033518297548710052069509401917457580566,0.037881392564287588720084443139057839289307594299316,-0.12759262003822494091487271816731663420796394348145,0.18982238199989284743729456295113777741789817810059,0.06897156935480072692534747602621791884303092956543,0.040875857473792714946725368463376071304082870483398,0.24552021491856185209101681721222121268510818481445,0.11661479349067296884534528089716332033276557922363,-0.021532691689078602842455367749607830774039030075073,-0.079962384625882787503314830246381461620330810546875,-0.36778964547015069452839952646172605454921722412109,-0.33805539332036571575912375919870100915431976318359,-0.16090889943058220290517112971429014578461647033691,0.31932608123985634085428841899556573480367660522461,0.070067776680227220054142378558026393875479698181152,0.28367617827447094702719709857774432748556137084961,-0.22204217183926036605079445962473982945084571838379,0.096927754837487098416026753966434625908732414245605,0.019230899643234822260495775481103919446468353271484,0.32133108900291917908731420538970269262790679931641,-0.22972260241058223284582595624669920653104782104492,-0.16416710757371849593866386385343503206968307495117,-0.12953058614796994496565218923933571204543113708496,0.17016538618411686245579517162695992738008499145508,0.24275391741692672886721027225576108321547508239746,0.024417644435702344496430526987751363776624202728271,-0.20251814415855501350094414192426484078168869018555,0.24716343058093942497421835469140205532312393188477,0.15357116662734882073237940858234651386737823486328,0.20034327248200736737437921419768827036023139953613,0.19628133808777784019561352124583208933472633361816,-0.078132661410275625057941795148508390411734580993652,0.13693446916106374877664109135366743430495262145996,-0.18474340101874375807966544016380794346332550048828,0.038291928960707155571441262509324587881565093994141,-0.23993738963613250869677528953616274520754814147949,0.09058869115625231560606778202782152220606803894043,-0.12750982861195422901623430789186386391520500183105,0.26255189457613598014162903382384683936834335327148,0.048941819648735160330765836533828405663371086120605,-0.18802351237931511085399449711985653266310691833496,-0.13470064380558843808444180467631667852401733398438,-0.10085120918887091612248241290217265486717224121094,0.0062118289336997442248722300917052052682265639305115,-0.11965907885185091130697543349015177227556705474854,0.18567728314389958521601897700747940689325332641602,-0.038498322549898128519529905133822467178106307983398,0.033160537832282767356506525402437546290457248687744,-0.10237999545210459129140900813581538386642932891846,0.13326648912417160541821203878498636186122894287109,-0.26316122323698193374852394299523439258337020874023,0.16574520948160123556824885326932417228817939758301,0.068480453803697383108328722300939261913299560546875,0.06523539923326662770541872760077239945530891418457,0.24538246443732972257301128138351486995816230773926,0.16889845645605119917043168698000954464077949523926,0.11041086348556009011367962102667661383748054504395,-0.10250142746082445410760186632614932022988796234131,-0.24786788541553386733262698271573754027485847473145,-0.14246807922020354730818780808476731181144714355469,-0.066359508079787563050722098978440044447779655456543,-0.1699006886342935562783651448626187629997730255127,-0.082196577106647711330467132029298227280378341674805,-0.16541822283186688458123114742193138226866722106934,0.029310722039199498673012200811172078829258680343628,-0.12010954741915293164655764712733798660337924957275,0.15005283903086483188182853609760059043765068054199,0.03452792701122835150595591358069214038550853729248,-0.0030680310593765333475324563750064044143073260784149,0.51674131691330038584908379561966285109519958496094,-0.09926147182422770387510979617218254134058952331543,0.17118328329730869707958618164411745965480804443359,-0.12666259619921751977678070488764205947518348693848,-0.63696031167715516652094720484456047415733337402344,-0.73473231502152924754511786886723712086677551269531,-0.74932259978145421275286253148806281387805938720703,-0.75610083855848753131567718810401856899261474609375,-0.25902597922742809366525307268602773547172546386719,0.36367813465798953798113757329701911658048629760742,-0.015356542122906125316661452018252020934596657752991,-0.18997885816365348010670288658729987218976020812988,0.21820416370039558140447866207978222519159317016602,-0.53884993166109595996715597721049562096595764160156,0.5300698453969214796188680338673293590545654296875,-0.57809857200761283202439244632842019200325012207031,0.63936634256136637421974455719464458525180816650391,0.21365116916691972992481396431685425341129302978516,0.32066562185092339909431302658049389719963073730469,-0.84176244244927334037242872000206261873245239257813,-1.0862632340175770728762927319621667265892028808594,-1.4202843557946966956961887262878008186817169189453,-1.6004837229249921914941978684510104358196258544922,-1.6145116579924601030171515958500094711780548095703,-0.069471857299172254385233316043013473972678184509277,0.5804075742817378369409198057837784290313720703125,0.61131445098784387148782570875482633709907531738281,-0.66698112443620782840980609762482345104217529296875,0.56056998005611868851616463871323503553867340087891,-1.0907436181486973580945232242811471223831176757813,0.71647543971239568971753897130838595330715179443359,-1.28519051921977478514236281625926494598388671875,0.43041334908179151863549805057118646800518035888672