-0.29335576999052342950236038632283452898263931274414,-0.20572466782423462494655552745825843885540962219238,-0.40045645318288275449347679568745661526918411254883,-0.19742754036720547294869732013467000797390937805176,0.15863779455667706419497164915810571983456611633301,0.00098224207261519307955721647118707551271654665470123,0.27167291147853200872219758821302093565464019775391,0.28219037495465615350553889584261924028396606445313,-0.31037395417148289089581680855189915746450424194336,0.070851954258750182713555432201246730983257293701172,-1.03691993527251469231487135402858257293701171875,0.70369342026393577604892470844788476824760437011719,0.51435005090270580208056117044179700314998626708984,-0.44310857381170887236976341228000819683074951171875,0.358381126082338852256725658662617206573486328125,0.22070219374281896396183810793445445597171783447266,0.089215236196735464568874363067152444273233413696289,-0.30686839542072336106670604749524500221014022827148,0.24252924640329942551630892921821214258670806884766,0.039559595205843296750192195077033829875290393829346,0.28149941686782992134041592180437874048948287963867,-0.013470328777323417601685662248200969770550727844238,-0.1288091691555155737791693582039442844688892364502,0.1806169086137923984747288841390400193631649017334,0.38879591613952790840613715772633440792560577392578,-0.019557651868955916452108567682444117963314056396484,-0.20748265174072411110017810642602853477001190185547,-0.37465188918809805285192737756005953997373580932617,-0.2477327537953357139421939336898503825068473815918,-0.17756951627333228405092313550994731485843658447266,-0.17100941628882754264040499947441276162862777709961,-0.3145683339787865295811286614480195567011833190918,0.23413194353888963639143128148134564980864524841309,0.00016859330645997841003139172677549595391610637307167,0.1581720267856070449852268211543560028076171875,-0.039334463351752460558152790781605290248990058898926,0.16899196473630501147411564488720614463090896606445,0.49543611730304015772219372593099251389503479003906,-0.10581184580137496797913598811646807007491588592529,0.24454739439544442847207506019913125783205032348633,0.047594641205278620521568200274487026035785675048828,0.011477064626064589422660411344168096547946333885193,-0.58833756042288021248509721772279590368270874023438,-0.030868494552439125488962901044942555017769336700439,0.13498221073118993329487125265586655586957931518555,-0.081509484127150380605719703908107476308941841125488,-0.13077450471857954283905201009474694728851318359375,-0.35502502132443264359906720528670120984315872192383,-0.31484140047046171861921948220697231590747833251953,0.35001081475372658458056207564368378371000289916992,-0.41489635885091391553913808820652775466442108154297,-0.23856756476681137413287103754555573686957359313965,0.08740335093380650899330674974407884292304515838623,0.15282740802005409519459533385088434442877769470215,0.23742763503890076948188436745112994685769081115723,-0.02805699115870192300592478318321809638291597366333,-0.461762732008704546160515747033059597015380859375,-0.086707587540484049037914360269496683031320571899414,-0.10650797650121605897322041300867567770183086395264,0.055753440129539297287486476761841913685202598571777,-0.025183649529081090362447881148000305984169244766235,-0.011035735808071149566256252683160710148513317108154,0.35084363752796915436604763272043783217668533325195,-0.033599400938935722327194355329993413761258125305176,-0.013519352754812152123120583269155758898705244064331,0.15393201194612432525232748048438224941492080688477,-0.088285490475881592264961739147111074998974800109863,0.025114019992515383694620112464690464548766613006592,-0.025132149539820774347687049043997831176966428756714,0.033005845374324611907201898475250345654785633087158,0.0052853695448594074229875516834908921737223863601685,-0.1395000389651784022948532992813852615654468536377,-0.14148123854075675409625034717464586719870567321777,-0.10786820224440422932854488635712186805903911590576,0.41637472994484975297169171426503453403711318969727,-0.23489697446470655939343430418375646695494651794434,-0.24797266679094093211332960891013499349355697631836,0.15809521070735460535061633891018573194742202758789,0.031746649995386559683918648033795761875808238983154,-0.059209513670874160118362539151348755694925785064697,-0.018512511561326269043936676439443544950336217880249,-0.44676993521744412518614808504935353994369506835938,0.052051597258273726853694540750439045950770378112793,-0.0048971518216787447708160385673181735910475254058838,0.049331401618283164667300155770135461352765560150146,0.038296801678875926067124879637049161829054355621338,0.05173894936597465271654883167684602085500955581665,0.44937557240019881943382529243535827845335006713867,0.056278809597258623587112680297650513239204883575439,-0.45156563828817858352593361814797390252351760864258,-0.32626637146204895412182622749242000281810760498047,-0.55179694534816825512990590141271241009235382080078,-0.45467243695528225533308841477264650166034698486328,-0.50740660119425451402008775403373874723911285400391,-0.017790056767691495714922567117355356458574533462524,-0.18267144581033623040866586961783468723297119140625,-0.23292780904187027068985571531811729073524475097656,0.20022852487973499813200817243341589346528053283691,-0.3080349325221646838990352534892736002802848815918,-0.11789541940628178728900365968002006411552429199219,-0.11957666504054514922117391506617423146963119506836,-0.0078111941349868919265420075248584907967597246170044,0.13174246370892966906396281956403981894254684448242,-0.238712885247824857515297480858862400054931640625,-0.3513552966974760605189942452852847054600715637207,0.15283553982356656852914511546259745955467224121094,1.0577024561575434358218217312241904437541961669922,-0.66565527018373249479310516107943840324878692626953,-0.67216896601507492015059597179060801863670349121094,0.31340614960376678155284935201052576303482055664063,0.2185662432007162980784897854391601867973804473877,-0.16112115972563406662843021877051796764135360717773,-0.089510371365041280222740738281572703272104263305664,-0.073350708086047905487347975395096000283956527709961,-0.12631461152800105285365361851290799677371978759766,-0.080635207133199271467560720338951796293258666992188,0.17828657239699163827850725283497013151645660400391,0.28093606202316739883784180165093857795000076293945,0.056611680953025510232290429257773212157189846038818,-0.16866823363594593554459777351439697667956352233887,-0.15206563838766432028570818602020153775811195373535,0.12263376687409077714363547784159891307353973388672,0.30983127224234918717371556340367533266544342041016,-0.13456721389654099918509189137694193050265312194824,-0.15092025351561436097291846181178698316216468811035,0.15138199874455326998656801151810213923454284667969,0.10175467881723432306273480207892134785652160644531,-0.19182759155262754657833568217029096558690071105957,-0.37040845898265156721507196380116511136293411254883,-0.11763145525857635065314354960719356313347816467285,-0.050039530720623934256785503293940564617514610290527,0.073837316923141424473975291675742482766509056091309,-0.18536260476688617981899653841537656262516975402832,-0.13102173155019791739306356248562224209308624267578,0.13661561252536810751045948109094751998782157897949,0.081357727716919001070827732746693072840571403503418,-0.26422496900646530448852900008205324411392211914063,-0.36316315016682293448369023280974943190813064575195,-0.2139580825394318541743388095710542984306812286377,-0.44807524316244357054372926540963817387819290161133,-0.50844052263658012780211947756470181047916412353516,-0.11703067237048522808429140695807291194796562194824,0.0027139953348530214752298839187005796702578663825989,0.082563142781425125082961358202737756073474884033203,-1.1187328728891356988128791272174566984176635742188,-0.99484149111687369959611260128440335392951965332031,-1.2943023537577007520127381212660111486911773681641,-0.71495731059555001074556912499247118830680847167969,0.16683773552536243500732382472051540389657020568848,0.89369941845274825098499604791868478059768676757813,0.48309703671849235639967901079216971993446350097656,0.2847046426851143618996786699426593258976936340332,-1.6172022277983078009100381677853874862194061279297,-0.82938030689769037806513551913667470216751098632813,-0.82178168278873964247566163976443931460380554199219,-0.65836217129703722417133349154028110206127166748047,-1.1196311873919040369429467318695969879627227783203,-0.28481445395110133178562250577670056372880935668945,0.96535528999851494269535123748937621712684631347656,-0.97352041422380686253035264599020592868328094482422,-2.0463912211104702265629384783096611499786376953125,-1.8491419642696844682916434976505115628242492675781,-2.1244111911428555927727757079992443323135375976563,-1.7246821901787976472064656263682991266250610351563,0.87161265069324767029712575094890780746936798095703,1.3712189351348276211695065285312011837959289550781,1.2099208748904659582734666400938294827938079833984,0.9410779341275006260048030526377260684967041015625,-2.4627755883475996867559842939954251050949096679688,-1.6915719154969683923894763211137615144252777099609,-2.0951738943744309118244473211234435439109802246094,-1.9343243610192613068932132591726258397102355957031,-2.0088602237377157777586944575887173414230346679688,-1.5509769524734982049096743139671161770820617675781,1.5891006646640528643388279306236654520034790039063,-2.03540285553551569819319411180913448333740234375,0.60375494769469950639972921635489910840988159179688